%YAML:1.0
---
hog: !!opencv-object-detector-hog
   winSize: [ 440, 440 ]
   blockSize: [ 110, 110 ]
   blockStride: [ 55, 55 ]
   cellSize: [ 55, 55 ]
   nbins: 8
   derivAperture: 1
   winSigma: 2.7500000000000000e+01
   histogramNormType: 0
   L2HysThreshold: 2.0000000000000001e-01
   gammaCorrection: 0
   nlevels: 64
   signedGradient: 0
   SVMDetector: [ 1.69524774e-01, -1.27509311e-01, -1.22368596e-01,
       1.94212854e-01, 3.33671153e-01, -1.88772395e-01, 3.87570187e-02,
       1.11151971e-01, 1.61067963e-01, -5.88334203e-02, 4.74235713e-02,
       -2.05379695e-01, -1.72383785e-01, -5.99336363e-02, 5.01736142e-02,
       4.06521410e-02, -6.25242814e-02, 7.53644528e-03, -6.44457117e-02,
       2.84039468e-01, 3.04616004e-01, -8.62082839e-02, 5.25418743e-02,
       -1.52406663e-01, -1.08168073e-01, 9.31362957e-02, 3.53954919e-02,
       -1.33855969e-01, -1.18452936e-01, -1.00465246e-01, 8.59777108e-02,
       1.99170150e-02, 1.79407030e-01, -1.57325074e-01, 1.90433294e-01,
       1.28111839e-01, 2.20804214e-02, 1.22722937e-03, -6.54202998e-02,
       -1.59814507e-02, 1.74266800e-01, -7.64828920e-02, -1.17718056e-01,
       -6.08958453e-02, -6.63559185e-04, 5.94573915e-02, -1.07563213e-01,
       5.62110022e-02, 2.37425533e-03, 5.31924628e-02, 5.48476353e-03,
       1.17809124e-01, 4.35180552e-02, 8.45669582e-02, 1.62252605e-01,
       4.62706089e-02, -1.33719742e-01, -1.68719608e-02, 1.70204818e-01,
       -9.80629697e-02, -4.90274839e-03, -8.60542152e-03,
       -1.87808067e-01, -6.40081689e-02, 1.61517918e-01, -2.56279945e-01,
       -7.34400079e-02, -6.03180192e-02, -5.49871214e-02, 2.27345154e-01,
       4.23639528e-02, 1.06963605e-01, 1.38395891e-01, 7.25815631e-03,
       4.59719449e-02, 2.49025151e-02, 6.60147667e-02, -8.84482265e-02,
       -2.94553675e-02, 2.07484588e-01, 4.31880765e-02, -6.15031968e-05,
       7.48239458e-02, -5.77831417e-02, -2.55278293e-02, -1.02198601e-01,
       -5.87183088e-02, -9.98796821e-02, 1.07762069e-01, -1.02085106e-01,
       -2.14744598e-01, -8.70721862e-02, 3.91134843e-02, -1.75278023e-01,
       -9.09463391e-02, -7.06563145e-02, 9.85596552e-02, 2.70713836e-01,
       5.49918525e-02, -5.48911504e-02, 1.71369240e-01, -3.11209019e-02,
       3.78653258e-02, 5.11684567e-02, 1.56810567e-01, 3.42407376e-02,
       -9.47174802e-02, 2.59421077e-02, 1.00087859e-01, -1.91208646e-02,
       -2.07065880e-01, 1.35036558e-01, -1.53233092e-02, -9.71897915e-02,
       -1.22772366e-01, -1.09653801e-01, 4.83053783e-03, -9.92034227e-02,
       -1.55810878e-01, -8.82675201e-02, 4.84064743e-02, 1.01020485e-01,
       -1.65616438e-01, -7.69390538e-02, 2.51839403e-02, -9.79075059e-02,
       -6.68471213e-03, -9.19469297e-02, 2.24815637e-01, 6.18755631e-02,
       -1.55718669e-01, 1.22559994e-01, -1.18705824e-01, -5.43637350e-02,
       -1.19602025e-01, 1.94271162e-01, 2.61918336e-01, -1.15046337e-01,
       -2.80990958e-01, 1.66569818e-02, 9.84432027e-02, 4.00352404e-02,
       -6.43603802e-02, 2.20558614e-01, 1.61355317e-01, 1.92540318e-01,
       1.53623909e-01, 1.24357216e-01, 7.11214244e-02, 3.04570571e-02,
       1.36582941e-01, 2.02194244e-01, -1.45971015e-01, 7.57236183e-02,
       1.01864878e-02, 2.04190195e-01, 3.99796627e-02, -6.85229599e-02,
       -3.39441858e-02, 4.44997288e-02, 2.87986815e-01, -1.32008120e-01,
       -1.12261564e-01, 8.58382359e-02, 3.97058157e-03, 3.06922197e-02,
       -1.19879402e-01, 1.34694010e-01, 3.21942151e-01, -1.11421697e-01,
       4.21193913e-02, 1.98850423e-01, -9.46395472e-02, -4.43251617e-02,
       -1.84903860e-01, 1.65366918e-01, -2.36329421e-01, 2.24743783e-02,
       -3.08570638e-02, -4.70038503e-02, 2.00758670e-02, 9.77655873e-02,
       1.26800776e-01, 5.40612116e-02, -8.32099542e-02, 1.24713462e-02,
       1.51083231e-01, 4.05221693e-02, -1.14709884e-01, -3.74193117e-02,
       -1.52179096e-02, -4.86185886e-02, 3.68009299e-01, 2.67744297e-03,
       1.21119298e-01, -2.27065504e-01, -1.67561591e-01, 6.20252006e-02,
       -4.32210304e-02, 1.19950630e-01, 1.52892604e-01, -1.29284933e-01,
       -2.82268316e-01, 1.20723255e-01, 1.80148363e-01, -8.52947216e-03,
       -3.99466157e-02, 3.05843055e-02, 1.11513883e-01, 2.03117713e-01,
       1.35699302e-01, -3.05655673e-02, -1.95546001e-01, 1.36154667e-01,
       3.95261310e-02, 6.47892281e-02, 1.24852277e-01, 7.44729415e-02,
       -4.36539855e-03, 4.21215028e-01, 3.81344885e-01, -1.47927567e-01,
       2.42432803e-02, -2.31588960e-01, 9.54937041e-02, -1.46837085e-01,
       -1.19046606e-01, 4.34954762e-01, 2.82673359e-01, -6.80477768e-02,
       -4.46390137e-02, -2.34366693e-02, 4.61455509e-02, -2.59454399e-02,
       -5.24306037e-02, -5.41869849e-02, -1.71115119e-02, 1.74432397e-02,
       -7.44071454e-02, 9.66474339e-02, 2.32919902e-01, 9.04230343e-04,
       -2.32608855e-01, 1.65162191e-01, 2.18870461e-01, -1.60364091e-01,
       -2.92057488e-02, 5.38581945e-02, 1.40117571e-01, 1.77262545e-01,
       2.14957111e-02, -4.13869806e-02, -2.81264894e-02, 2.04204395e-02,
       -9.13218334e-02, -1.10681660e-01, -2.30781585e-02,
       -2.81372629e-02, -2.66958158e-02, 1.42721251e-01, 8.06896314e-02,
       7.54593909e-02, 1.10567257e-01, 6.79488778e-02, 1.28846303e-01,
       -2.14110641e-03, 1.58856958e-01, -8.30597281e-02, -1.35570429e-02,
       1.20042078e-01, -9.68341082e-02, 3.07372995e-02, 1.11601107e-01,
       -3.91702540e-02, -9.65460911e-02, 6.54180497e-02, 3.05930134e-02,
       1.78558633e-01, 4.52284403e-02, 3.53173912e-02, -3.71420160e-02,
       -1.58642009e-01, -7.40056932e-02, -1.23762928e-01,
       -2.70936579e-01, -1.35185555e-01, -1.72011122e-01,
       -8.97188336e-02, 1.94126874e-01, -2.90489327e-02, 1.69780627e-01,
       5.11713699e-02, 7.77525157e-02, 1.94357947e-01, 8.06508511e-02,
       1.25889480e-01, 2.05940697e-02, -7.46263042e-02, 5.04121855e-02,
       5.61220124e-02, -1.06791191e-01, -2.26540893e-01, 5.15383333e-02,
       -1.15112871e-01, 6.47965893e-02, -5.63857444e-02, 4.05494943e-02,
       2.00780407e-02, 1.54143777e-02, -3.87785435e-02, -1.12979136e-01,
       3.58098149e-02, -4.93710563e-02, -2.29543492e-01, 5.10915443e-02,
       -7.17403516e-02, -1.61357999e-01, -1.16188683e-01, 2.30586044e-02,
       -1.19336456e-01, 1.47178918e-01, 1.79866105e-02, -7.67855439e-04,
       3.66685055e-02, 6.15599155e-02, 6.82628304e-02, 1.97264791e-01,
       4.68792059e-02, 5.07633649e-02, -9.62640531e-03, -2.00141519e-02,
       3.69611792e-02, 1.42128721e-01, -5.27667180e-02, -9.24528018e-02,
       -6.30716085e-02, -8.49656984e-02, -1.02131650e-01,
       -6.84438944e-02, 1.19477836e-02, -7.10268691e-02, -1.16725631e-01,
       2.93812156e-02, -4.78497483e-02, -5.86306639e-02, -1.41710669e-01,
       -2.19456866e-01, -1.60932705e-01, -7.36360326e-02,
       -1.24804087e-01, -1.29823714e-01, 4.26234631e-03, -2.73961630e-02,
       2.68950183e-02, 9.13977101e-02, -5.44945151e-02, -1.08476669e-01,
       3.56250559e-03, 8.72886330e-02, 4.53496948e-02, 3.77506055e-02,
       1.64180160e-01, 3.86177041e-02, 9.16259959e-02, -8.90034437e-02,
       -4.61948896e-03, -2.48942688e-01, 6.11806847e-02, -2.19056070e-01,
       -1.25317961e-01, -4.98708012e-03, -1.33916050e-01,
       -7.56491125e-02, -1.76164433e-01, -1.32469058e-01, 1.14231678e-02,
       -1.66211426e-01, -1.72075704e-02, 8.88696611e-02, -2.79510189e-02,
       -2.63032969e-02, 1.68038160e-01, 1.60117764e-02, 6.91642687e-02,
       -1.15543433e-01, -4.47007231e-02, -5.56731075e-02,
       -9.28390995e-02, -1.58426493e-01, 9.03955176e-02, -1.74765080e-01,
       -3.89455482e-02, 8.97613019e-02, 8.84638205e-02, 2.75506586e-01,
       -5.53727597e-02, -3.69454511e-02, 1.30855590e-01, -9.51145589e-02,
       1.07415639e-01, -1.20651543e-01, -2.24832390e-02, -7.37665221e-02,
       -1.70960158e-01, -2.28761181e-01, 7.89195150e-02, 1.26410812e-01,
       -1.01969251e-02, 1.49561197e-01, -2.91875593e-04, 6.86434731e-02,
       1.71562776e-01, 3.38809788e-02, 1.03122748e-01, 9.59695578e-02,
       -1.82426702e-02, -2.49207877e-02, 6.83176368e-02, 7.30371848e-02,
       -7.09799007e-02, -1.18597806e-01, 1.84461877e-01, 4.77684699e-02,
       8.90228972e-02, 9.00445357e-02, -1.22435223e-02, -7.20873326e-02,
       2.61073560e-01, 2.30138376e-01, -9.59556848e-02, 6.74826205e-02,
       3.35684419e-02, -3.59371230e-02, -1.38199478e-01, 2.34301481e-02,
       1.43632358e-02, -8.19307119e-02, 9.91769135e-02, 1.76179782e-02,
       -6.81629479e-02, 3.85329090e-02, 3.88162918e-02, 8.71744081e-02,
       1.22727133e-01, 2.18856126e-01, -5.66194355e-02, 8.26113597e-02,
       9.34432074e-02, 3.88340745e-03, 9.60093178e-03, -3.22965443e-01,
       1.28980860e-01, 1.35599196e-01, -4.74383645e-02, 1.80674165e-01,
       1.21697240e-01, -4.52896655e-02, 1.56890005e-01, 1.10799767e-01,
       -1.46102551e-02, 9.05516893e-02, 2.58588581e-03, -1.48791909e-01,
       1.05370447e-01, -2.20650099e-02, 3.12264748e-02, 6.57010684e-03,
       2.77780652e-01, 2.00242728e-01, 2.69834623e-02, 1.58871353e-01,
       1.58975646e-02, -7.05852881e-02, -7.58818388e-02, 4.32270393e-02,
       -1.43474638e-01, -5.17034233e-02, 7.41371606e-03, -6.08432740e-02,
       8.00300315e-02, 7.91292042e-02, 1.42170817e-01, 1.73761398e-02,
       9.64884162e-02, 9.95136574e-02, 1.42991245e-01, 3.27495150e-02,
       -5.01915254e-03, 6.43012449e-02, 5.87114133e-02, -1.19213976e-01,
       4.28365692e-02, -9.67974365e-02, -8.98762047e-02, -4.13960852e-02,
       -1.73855796e-02, 5.67623377e-02, -2.06271484e-02, 5.80044575e-02,
       -4.14540172e-02, 4.22825590e-02, -6.62614331e-02, -3.91741544e-02,
       7.16983676e-02, -1.81834430e-01, 6.28483668e-02, -1.29536092e-01,
       1.14179648e-01, -7.25290030e-02, -8.80916342e-02, -1.69804126e-01,
       -2.62391895e-01, 1.87614143e-01, 6.43982887e-02, -1.15302362e-01,
       6.67953268e-02, -2.97096223e-02, 1.24984406e-01, 2.06536427e-01,
       9.61689129e-02, 2.37553497e-03, -6.26653135e-02, 3.52091938e-02,
       -2.41178405e-02, -1.57205671e-01, 1.47198394e-01, -4.16579470e-02,
       -1.03063293e-01, -5.93953244e-02, 4.34696078e-02, -1.27211750e-01,
       6.58882484e-02, -1.09054737e-01, -3.99161763e-02, -3.76976468e-02,
       -8.30141269e-03, -3.45358043e-04, -1.10450380e-01,
       -2.04845518e-01, -2.82243133e-01, -1.57681689e-01,
       -2.20669061e-01, -2.52495766e-01, -1.36741817e-01,
       -3.83953340e-02, 3.14842351e-02, 5.51622845e-02, 8.49595964e-02,
       -1.32031059e-02, 5.09411767e-02, -5.02969585e-02, -9.02251601e-02,
       8.67057815e-02, -4.26059403e-02, -1.52036510e-02, -6.12628413e-03,
       -1.92933362e-02, -5.18518798e-02, 3.40634733e-02, 3.67541541e-03,
       -2.97478456e-02, -7.49250278e-02, 1.03471577e-01, -1.21213295e-01,
       -1.51362568e-01, 6.31370842e-02, -4.62742001e-02, -2.09104672e-01,
       -3.18662859e-02, -1.19125761e-01, 3.20587233e-02, -5.78182265e-02,
       -2.14068040e-01, 2.97575016e-02, 3.26352604e-02, 5.46449125e-02,
       -8.59487150e-03, 7.59617537e-02, -1.86673738e-02, -6.47030845e-02,
       2.54766420e-02, -2.53581494e-01, -2.96313930e-02, 6.18284270e-02,
       -5.70558757e-02, 5.36927059e-02, 2.05146685e-01, -3.72480694e-03,
       4.29553613e-02, 6.25264943e-02, 1.42110050e-01, 1.08673528e-01,
       -1.71822399e-01, -7.35275820e-02, -9.13271904e-02,
       -1.94626469e-02, -7.03813732e-02, -2.35025212e-01,
       -1.51943579e-01, -4.99837324e-02, 2.66264323e-02, -1.29805908e-01,
       6.45885095e-02, 3.79338823e-02, 1.14399642e-01, 1.31964060e-02,
       6.59735799e-02, 4.55841422e-02, -1.21274665e-01, -1.51232809e-01,
       -2.98738461e-02, -7.61873350e-02, -2.07730666e-01, 6.51165918e-02,
       7.04878792e-02, -8.81956741e-02, 1.23630231e-02, -7.86970407e-02,
       -4.94879857e-03, 1.83278069e-01, 1.64837539e-01, 1.69138849e-01,
       6.42734915e-02, 4.23671491e-02, 8.05293396e-02, -9.97437313e-02,
       -6.24515563e-02, -1.55715635e-02, -1.51689321e-01, 1.08885564e-01,
       -5.03516644e-02, -2.06267148e-01, 1.37758609e-02, 1.27023742e-01,
       1.10997885e-01, -1.44176967e-02, 1.24333195e-01, -5.86122554e-03,
       -5.50074168e-02, 2.73582414e-02, 6.21889234e-02, -1.95076615e-02,
       6.97794333e-02, 1.87725984e-02, -6.33526221e-02, 1.66435182e-01,
       4.38008942e-02, 3.90665233e-02, 2.30765566e-01, 6.03999831e-02,
       6.86587393e-02, 1.64056465e-01, 9.53990668e-02, -4.01153490e-02,
       -5.91037460e-02, -4.27120336e-04, -4.97109583e-03, 5.51015250e-02,
       -6.60227612e-03, -2.55512632e-02, 1.38021419e-02, -4.93582115e-02,
       -1.83043964e-02, 4.59747128e-02, 1.90345064e-01, 4.89896238e-02,
       -2.53091846e-02, 1.78917274e-01, 1.09409377e-01, 5.11692166e-02,
       -3.01214345e-02, 3.73525359e-02, -4.68278527e-02, 1.14694007e-01,
       1.50892451e-01, 1.88157454e-01, 2.35347629e-01, -3.71991880e-02,
       1.32407501e-01, 9.23046544e-02, 1.07224047e-01, -3.56273688e-02,
       7.98408836e-02, -2.04756305e-01, -2.51552537e-02, 5.16311601e-02,
       1.22531699e-02, -1.42972600e-02, -5.97223779e-03, 1.35518894e-01,
       6.63359091e-02, 1.97136387e-01, 2.06213996e-01, -1.30445346e-01,
       9.88719165e-02, 1.55645892e-01, -1.82564944e-01, -5.92162786e-03,
       1.13860048e-01, 6.84608519e-02, -4.64513376e-02, 2.68592499e-02,
       5.41862063e-02, -1.87856201e-02, 1.62399992e-01, -6.68448135e-02,
       2.97186840e-02, 8.67297575e-02, -2.56461166e-02, 3.34125943e-03,
       8.72683898e-02, 1.08751871e-01, -1.54950216e-01, 7.17178136e-02,
       -4.26863916e-02, 6.93684956e-03, -1.86191946e-01, -1.01193255e-02,
       -1.61810204e-01, -2.38869131e-01, -4.53156829e-02,
       -2.19894610e-02, 6.70296177e-02, 6.01784177e-02, 1.30179167e-01,
       2.29839254e-02, -4.96252999e-03, 5.18637821e-02, 4.42854781e-03,
       -1.00589201e-01, 3.37097384e-02, -1.92100685e-02, -9.27620307e-02,
       -1.53950974e-01, -5.35309240e-02, 2.46388335e-02, 1.00956857e-01,
       1.78443968e-01, -3.20920870e-02, 2.02817678e-01, 8.90107900e-02,
       8.39193352e-04, 5.35345785e-02, 5.27654290e-02, -5.37922941e-02,
       -1.35447696e-01, -1.71723947e-01, -2.68240329e-02,
       -9.00069773e-02, -1.13954149e-01, 8.67373589e-03, 1.35062169e-02,
       -2.78385691e-02, -6.36969227e-03, -7.22254142e-02, 8.04841146e-02,
       2.65865680e-02, -2.03035306e-02, 4.21625488e-02, -7.64154121e-02,
       -3.87779661e-02, -3.01435380e-03, -1.11557327e-01,
       -7.64850453e-02, -1.05162956e-01, -1.02361612e-01, 1.76379643e-02,
       -5.19233234e-02, 1.00622252e-01, 2.02505320e-01, 9.90193114e-02,
       7.81019852e-02, -4.60856669e-02, 5.03140502e-02, 9.99115184e-02,
       -3.66667546e-02, -1.43050343e-01, 3.89229581e-02, 6.64101392e-02,
       -4.14436907e-02, -1.23630404e-01, 1.08828515e-01, 4.12655063e-02,
       -2.76387893e-02, -2.21169814e-02, 1.35060072e-01, -5.27149178e-02,
       6.14009984e-02, 1.77971844e-03, -3.66860405e-02, 1.41079389e-02,
       -1.18982479e-01, -6.49723560e-02, -9.10246000e-02,
       -7.19875516e-03, -1.28847122e-01, 3.19025442e-02, 8.64028111e-02,
       -2.11490765e-02, -1.04997523e-01, -1.26004726e-01, 3.18749584e-02,
       4.98475246e-02, -2.90133059e-02, -9.48573053e-02, 1.22502565e-01,
       1.09294109e-01, -3.36455256e-02, 9.40589234e-02, 8.61826837e-02,
       1.91164494e-01, 1.52432308e-01, -1.09558161e-02, 4.04894240e-02,
       9.67490524e-02, -4.76767160e-02, -9.53924581e-02, 1.94110312e-02,
       4.73636836e-02, 2.64352690e-02, -1.59325078e-01, -7.60248527e-02,
       -5.92614301e-02, -1.31395489e-01, 8.60980302e-02, 7.00679868e-02,
       -1.04599511e-02, 6.40129969e-02, -9.79660153e-02, 1.39203668e-01,
       2.06203625e-01, -1.97779052e-02, -1.01359654e-02, -1.66120797e-01,
       -1.11435153e-01, -7.75013417e-02, -4.68223803e-02, 1.82446241e-02,
       -8.94999802e-02, -1.37726873e-01, 2.30797797e-01, -6.12550043e-02,
       9.45965499e-02, -1.35577759e-02, -1.04942021e-03, -1.83656216e-02,
       9.73755047e-02, 9.47226435e-02, 2.61498652e-02, -1.26746163e-01,
       -2.70966262e-01, -6.08290210e-02, 1.08593531e-01, 3.01873889e-02,
       -3.64387296e-02, -9.73586179e-03, 1.91271424e-01, 4.84327041e-02,
       -6.65234029e-02, 3.11104991e-02, -1.52491182e-02, 2.09663227e-01,
       6.36705086e-02, 6.71984181e-02, -1.30159827e-02, -6.45164549e-02,
       2.40807179e-02, -3.51527222e-02, -3.78162563e-02, -1.23941861e-01,
       6.69498816e-02, 1.10198453e-01, 6.75071403e-02, -5.68552762e-02,
       -7.13043511e-02, 2.20541283e-01, 1.38898894e-01, -2.52793022e-02,
       9.67911258e-02, 5.37572242e-02, -3.42830531e-02, -9.38803032e-02,
       2.64681596e-02, 1.01057306e-01, -7.14375302e-02, 2.80851237e-02,
       -1.21921740e-01, 1.34218201e-01, 5.81514388e-02, -1.69475541e-01,
       -3.00628003e-02, 1.88717857e-01, 1.92987442e-01, -9.35220048e-02,
       1.02709875e-01, 1.55430496e-01, 1.06405579e-01, 5.26481718e-02,
       -1.30504757e-01, 7.84311891e-02, 9.16739553e-02, -1.97884664e-01,
       -2.37863287e-02, 2.33064041e-01, -1.88912507e-02, -4.05466296e-02,
       1.92751382e-02, -2.04497632e-02, -8.45950171e-02, -6.89207539e-02,
       -6.37602955e-02, 1.18815556e-01, 1.42822102e-01, 1.01930082e-01,
       -1.90950006e-01, 2.61456877e-01, 1.73517078e-01, -5.85288480e-02,
       7.49951378e-02, 1.38394788e-01, 9.85687822e-02, -5.04542813e-02,
       -2.93217096e-02, -1.73126101e-01, -1.46779120e-01, 1.56787679e-01,
       -6.77780584e-02, -4.10996526e-02, 1.09525107e-01, -3.34089692e-03,
       1.07384123e-01, 7.32522160e-02, 6.89798668e-02, 6.71316981e-02,
       1.01184577e-01, -3.26000452e-02, -5.04218414e-02, -9.70003009e-03,
       -1.23117901e-01, -1.86954200e-01, -4.88290377e-02,
       -8.99886638e-02, -8.43869224e-02, -1.92618638e-01, 7.28229880e-02,
       9.38293431e-03, 8.34898502e-02, 1.28611282e-01, 8.50455686e-02,
       2.00764179e-01, -6.30355254e-02, -1.73239693e-01, 2.11069081e-02,
       -6.71353191e-02, 4.89577912e-02, -1.25709549e-01, 5.71165085e-02,
       -1.80759817e-01, -8.95501971e-02, -4.13086191e-02,
       -5.14184833e-02, 8.23980495e-02, -4.49095704e-02, -3.33829946e-03,
       1.10579208e-01, 1.27641678e-01, 5.51343821e-02, -7.47716799e-02,
       -2.91198313e-01, -1.93474457e-01, -7.15202242e-02,
       -2.30335593e-01, -9.87594500e-02, -1.43690690e-01,
       -1.72904767e-02, -1.22494087e-01, 1.29618630e-01, 6.67356998e-02,
       1.42492935e-01, 1.27137348e-01, 2.57133424e-01, -2.91118082e-02,
       1.63387164e-01, 4.42672372e-02, -7.06021637e-02, -5.04994951e-02,
       -1.74993705e-02, -1.15779728e-01, -6.66889474e-02,
       -2.89942976e-02, 9.97084659e-03, -2.03427039e-02, -5.18553285e-03,
       -1.11793637e-01, -1.14481725e-01, -1.33602560e-01,
       -5.23364507e-02, 2.54931543e-02, -1.10456146e-01, -4.28871103e-02,
       3.89919616e-02, -1.60088554e-01, -1.96314141e-01, -9.25633982e-02,
       -3.32570486e-02, -1.12799443e-01, -1.90256089e-01,
       -1.91150717e-02, 1.49949202e-02, 3.86334397e-02, 1.69741586e-01,
       -6.19029701e-02, -7.32775265e-03, 1.40147880e-01, 6.97247237e-02,
       2.09747970e-01, -1.10047244e-01, -1.06112838e-01, -1.25819398e-02,
       1.40970320e-01, 4.04893272e-02, 4.62263152e-02, -1.24731690e-01,
       7.31607601e-02, -6.84920326e-02, -6.33754358e-02, -2.93430500e-02,
       2.09667385e-02, -2.25807160e-01, -2.18469054e-01, -1.04524173e-01,
       -3.84101011e-02, -1.57594278e-01, -2.44768746e-02, 1.33949831e-01,
       1.84893757e-01, 2.31328979e-02, 1.12181734e-02, -2.03453060e-02,
       4.06230837e-02, 5.75655773e-02, 5.77758346e-03, -3.48288231e-02,
       -9.08397511e-02, -7.92308524e-02, -1.30268782e-01,
       -2.46161800e-02, -2.49271709e-02, 1.56385526e-01, 1.15558915e-01,
       -6.61617471e-03, -2.95122080e-02, -9.49661434e-03, 1.84513941e-01,
       2.86956072e-01, 1.25755966e-01, -1.27415231e-03, 1.65747982e-02,
       1.37674045e-02, -4.99004424e-02, -6.50841445e-02, -7.74287283e-02,
       -1.24042712e-01, -3.36764082e-02, 2.13658288e-01, 1.43669203e-01,
       3.98705900e-02, 1.08890556e-01, -6.06510509e-03, 1.62356883e-01,
       3.74357998e-02, -3.04161897e-03, -9.68152955e-02, -6.46196604e-02,
       -9.52608734e-02, -6.76388666e-02, -2.15720553e-02, 2.68880539e-02,
       -3.12188528e-02, -3.46795446e-03, -5.30297421e-02, 1.60180807e-01,
       2.17550561e-01, -5.40336482e-02, 3.57019762e-03, -6.02970645e-02,
       4.98417616e-02, 2.51869231e-01, -6.28063753e-02, 6.30052686e-02,
       5.98535202e-02, -1.49420783e-01, -8.09454396e-02, 8.25826600e-02,
       -1.80025563e-01, 3.89699861e-02, 1.45722300e-01, -1.57213509e-01,
       -1.05774939e-01, 1.65169626e-01, 1.34381086e-01, 4.70043626e-03,
       -5.02773821e-02, 2.89795309e-01, -1.53327987e-01, -1.85565967e-02,
       7.72209615e-02, -1.81391500e-02, -1.08022317e-01, 5.13377562e-02,
       1.29403528e-02, -5.74334115e-02, -2.78562717e-02, -6.46923408e-02,
       7.31824040e-02, 3.36257815e-01, 1.46063671e-01, -8.32124129e-02,
       -1.51490852e-01, 4.55227755e-02, 3.07298321e-02, 7.59341791e-02,
       3.97699587e-02, 1.90585628e-01, 2.44801611e-01, -1.35423064e-01,
       -3.81548107e-02, -7.38041522e-03, -6.41054064e-02, 1.61753315e-02,
       -2.54789982e-02, 3.18211876e-02, 7.74839055e-03, 1.26825243e-01,
       -2.80935802e-02, 7.88000505e-03, 6.98784366e-02, 1.43280777e-03,
       7.55953714e-02, 3.05088878e-01, 2.92339981e-01, -1.73688889e-01,
       9.25705582e-02, 1.20578870e-01, 5.81137240e-02, -1.14618540e-01,
       -9.59467664e-02, -1.19653307e-01, 4.91903424e-02, 5.43548241e-02,
       5.06494902e-02, 2.16397479e-01, -3.07774022e-02, -1.72837794e-01,
       -1.24781355e-01, 1.14930794e-01, -1.29405528e-01, 3.13933715e-02,
       -1.71791704e-03, 2.47130543e-03, -6.51207194e-02, -9.00674835e-02,
       -9.38988477e-02, -1.43411979e-01, -1.48657393e-02, 4.65027280e-02,
       -6.59814430e-03, -5.51819708e-03, 2.14656532e-01, -7.28792921e-02,
       -4.53246161e-02, 1.55389726e-01, -1.43188253e-01, -1.02483556e-01,
       -1.15553431e-01, 1.54166237e-01, 8.04221705e-02, -1.44592583e-01,
       -3.37581635e-02, -4.85684499e-02, -1.05407968e-01, 1.20981842e-01,
       -5.70545085e-02, 1.11000739e-01, -8.34136084e-02, -2.60773133e-02,
       -1.01452738e-01, 1.93316899e-02, 1.54912412e-01, 4.72064205e-02,
       4.88506891e-02, -8.29161480e-02, -8.49015638e-02, -1.67277418e-02,
       -1.24473004e-02, -6.84633777e-02, -4.39245701e-02,
       -7.07156807e-02, -6.79352432e-02, -1.41852334e-01, 1.57811835e-01,
       5.93890660e-02, 6.75701723e-02, 1.06626086e-01, 3.49122062e-02,
       8.58619586e-02, 3.00956853e-02, 1.16079889e-01, -1.91377122e-02,
       -5.47225475e-02, 1.44150421e-01, -9.13016200e-02, 8.18442330e-02,
       -6.33425042e-02, -7.01123774e-02, 2.62129158e-01, 8.94573424e-03,
       -9.23238695e-02, 7.41280913e-02, -6.20990992e-04, -1.67734325e-01,
       -6.97591752e-02, -1.43426001e-01, 6.29671384e-03, -2.47985814e-02,
       8.10709503e-03, 7.01617748e-02, -4.70116250e-02, -1.11483343e-01,
       -7.88665470e-03, -2.58565862e-02, -5.39201647e-02,
       -2.51283757e-02, 5.96302673e-02, 2.21695319e-01, -3.55809294e-02,
       6.83803633e-02, 9.24454108e-02, 9.35114399e-02, 2.52608269e-01,
       5.76628745e-02, 5.09954477e-03, -3.45663098e-03, 1.65863961e-01,
       1.62305489e-01, 2.00270072e-01, 1.83777735e-01, 1.39778346e-01,
       -5.03001548e-03, 6.74148649e-02, 4.85650599e-02, -1.88144848e-01,
       -1.66854516e-01, -9.20011550e-02, 2.02578143e-03, -2.49863844e-02,
       1.27920583e-01, 9.85705107e-02, 1.35598204e-03, 4.25667688e-02,
       7.24801198e-02, 1.29841268e-01, 2.02654172e-02, 1.00375898e-01,
       1.36800870e-01, -7.40547329e-02, -9.78555251e-03, 2.23094776e-01,
       1.44850239e-01, 6.54012337e-02, -1.01619242e-02, -7.51538947e-02,
       1.60270035e-01, 1.38631761e-01, 5.76890893e-02, 1.77636594e-01,
       1.29853159e-01, -3.68684642e-02, 4.27537374e-02, 1.45766735e-01,
       -1.87770218e-01, 1.67730935e-02, 1.26221366e-02, -3.26538496e-02,
       -3.82344867e-03, 9.05977786e-02, -3.06789756e-01, -8.54023546e-02,
       3.28740217e-02, -1.34506673e-01, 3.63997668e-02, -2.77801305e-02,
       1.18062213e-01, 3.17858569e-02, -3.02677937e-02, 7.49480575e-02,
       5.39602377e-02, 5.02019282e-03, 2.95365937e-02, -2.01506868e-01,
       -5.80159016e-02, 1.21193290e-01, -1.30863175e-01, -2.94724219e-02,
       4.80331816e-02, 1.04654245e-01, 1.06172808e-01, -1.89750548e-02,
       -7.00237155e-02, 1.86683357e-01, -5.41031994e-02, 5.51325195e-02,
       -2.75756754e-02, -1.80802956e-01, 3.78551781e-02, 1.27432849e-02,
       -1.12582356e-01, -5.13723455e-02, 7.35821798e-02, 9.27616805e-02,
       1.56786114e-01, 3.61944214e-02, -7.35407248e-02, 2.22002685e-01,
       2.03819036e-01, -2.08546713e-01, -1.37529388e-01, 6.83335736e-02,
       -2.65677422e-02, -9.22071282e-03, -3.75298671e-02, 9.60930483e-04,
       -4.15361226e-02, -4.98011336e-02, 7.32691512e-02, 1.08076535e-01,
       8.73477980e-02, 4.30113599e-02, -1.60289288e-01, 1.60764486e-01,
       1.98316813e-01, -2.89227009e-01, 5.40728355e-03, 2.49992430e-01,
       1.94850750e-02, -6.14988059e-02, -2.46831536e-01, 2.14015305e-01,
       2.15517551e-01, -1.86641678e-01, 4.18030471e-02, -8.31149742e-02,
       -9.15909782e-02, 1.50307715e-02, -6.09072112e-02, 2.09782943e-02,
       4.23405915e-02, 6.29880801e-02, 2.11876910e-02, -1.65038392e-01,
       3.48309040e-01, -1.48653150e-01, -9.28944796e-02, 1.80180296e-01,
       1.32165909e-01, -2.65292317e-01, -7.17026740e-02, 4.46616322e-01,
       1.77307799e-01, -3.14130820e-02, 1.06104568e-01, -2.17964817e-02,
       -2.52975047e-01, -1.71904236e-01, -1.71102747e-01, 2.13124126e-01,
       -1.14311390e-01, 1.14315571e-02, 1.07217625e-01, 2.23635390e-01,
       9.26602483e-02, 1.30140811e-01, 4.66408804e-02, -5.88103160e-02,
       -1.12549275e-01, -1.88542511e-02, 5.49329557e-02, -1.12962350e-01,
       9.45666656e-02, 9.34613869e-02, 4.72408645e-02, -1.66046873e-01,
       1.24641299e-01, -2.35000834e-01, -5.25779389e-02, 2.88662612e-02,
       -6.50044978e-02, 8.14733058e-02, 1.16106994e-01, 3.49710286e-01,
       2.32977808e-01, 1.11842915e-01, 2.01261133e-01, 6.13225996e-02,
       1.03694215e-01, 3.76120992e-02, -8.70309025e-02, 2.08876088e-01,
       5.00252545e-02, -1.75386015e-02, -1.12505853e-01, 6.38056500e-03,
       7.69936591e-02, -4.69741002e-02, -1.74717188e-01, -1.01189772e-02,
       -1.33298829e-01, 3.15545760e-02, -5.34313433e-02, -2.00194776e-01,
       -5.99564575e-02, -9.32330862e-02, 1.00505231e-02, 3.53426747e-02,
       2.64246613e-01, -6.25209808e-02, 4.71384116e-02, -1.58123057e-02,
       1.32519469e-01, 4.67239432e-02, -1.50939211e-01, 2.43064716e-01,
       7.86529109e-02, -9.78333056e-02, 5.36063053e-02, 1.25976130e-01,
       1.47614807e-01, -5.93786798e-02, -5.59408441e-02, 2.28072762e-01,
       -1.39052093e-01, 1.87482163e-01, 8.45507830e-02, -9.07744467e-02,
       -5.35547920e-02, 8.73875022e-02, 1.50933847e-01, -3.02437469e-02,
       8.89993683e-02, 2.63460815e-01, -1.25753358e-01, 4.66434052e-03,
       1.83812976e-01, 2.32995525e-02, 8.90810415e-02, -1.01174586e-01,
       1.94658488e-01, -9.21639875e-02, 2.11885378e-01, -7.26037379e-03,
       -1.12339064e-01, -1.83775425e-02, -2.25560572e-02, 1.45503134e-01,
       1.40834913e-01, -1.14423968e-01, -3.98202576e-02, -1.42975301e-01,
       -2.51533147e-02, -1.15888692e-01, -7.00949505e-02, 1.47295073e-01,
       -3.12683135e-02, 9.57033932e-02, -1.69200331e-01, -2.41856370e-02,
       2.96002626e-02, -1.53622299e-01, -4.02710140e-02, -7.92103931e-02,
       4.07651849e-02, 2.26794425e-02, -3.01295351e-02, 6.70181885e-02,
       1.01241313e-01, 3.49436477e-02, -1.39527228e-02, -4.54842597e-02,
       5.77888004e-02, 7.32475445e-02, 5.51119335e-02, -4.47812751e-02,
       -2.85364948e-02, -1.65342972e-01, -5.38256532e-03, 2.40434840e-01,
       2.03320459e-01, -2.63689458e-02, -4.38333899e-02, 1.45071909e-01,
       2.16916382e-01, 7.06240013e-02, 2.51986180e-02, 3.27956110e-01,
       5.86279817e-02, -6.60793632e-02, 2.03723907e-02, -2.11928990e-02,
       -4.42628004e-02, 5.10763600e-02, -1.63704176e-02, -1.66896299e-01,
       -1.33983761e-01, -1.11378385e-02, -7.83810467e-02,
       -8.26627016e-02, -3.64364944e-02, -5.00011630e-02, 7.16323853e-02,
       -7.19010085e-02, 2.47052491e-01, -1.98607221e-01, -7.19068199e-02,
       1.62645951e-01, 9.06763002e-02, 8.98823738e-02, -1.08441385e-02,
       2.69707531e-01, 2.37738565e-01, -1.28247097e-01, 9.50510204e-02,
       1.94527328e-01, 2.45115049e-02, -1.45761564e-01, -2.48344377e-01,
       1.41945243e-01, -2.00225145e-01, 9.00446028e-02, -1.45021882e-02,
       5.80697022e-02, 1.25185266e-01, -6.31322339e-02, 9.81466845e-02,
       -1.93034112e-01, -3.84608433e-02, 1.80872455e-02, -1.11051328e-01,
       1.75795928e-01, 3.39394510e-01, -5.66365495e-02, 1.19904920e-01,
       -1.35158941e-01, 3.02751809e-01, 7.25827646e-03, -2.26920247e-01,
       -5.92520833e-02, -5.90119213e-02, -8.46710578e-02,
       -3.41674805e-01, 1.15003906e-01, 2.12188184e-01, -2.17604682e-01,
       -3.10493350e-01, 2.14708611e-01, 3.38924080e-01, -2.11411908e-01,
       -6.55558705e-02, 2.01403677e-01 ]
